{
    "layers": [
        {
            "activation": 1,
            "neurons": [
                {
                    "weights": [
                        1.0
                    ],
                    "activation": 1,
                    "learningRate": 0.1
                },
                {
                    "weights": [
                        1.0
                    ],
                    "activation": 1,
                    "learningRate": 0.1
                },
                {
                    "weights": [
                        1.0
                    ],
                    "activation": 1,
                    "learningRate": 0.1
                },
                {
                    "weights": [
                        1.0
                    ],
                    "activation": 1,
                    "learningRate": 0.1
                },
                {
                    "weights": [
                        1.0
                    ],
                    "activation": 1,
                    "learningRate": 0.1
                },
                {
                    "weights": [
                        1.0
                    ],
                    "activation": 1,
                    "learningRate": 0.1
                },
                {
                    "weights": [
                        1.0
                    ],
                    "activation": 1,
                    "learningRate": 0.1
                },
                {
                    "weights": [
                        1.0
                    ],
                    "activation": 1,
                    "learningRate": 0.1
                },
                {
                    "weights": [
                        1.0
                    ],
                    "activation": 1,
                    "learningRate": 0.1
                },
                {
                    "weights": [
                        1.0
                    ],
                    "activation": 1,
                    "learningRate": 0.1
                },
                {
                    "weights": [
                        1.0
                    ],
                    "activation": 1,
                    "learningRate": 0.1
                },
                {
                    "weights": [
                        1.0
                    ],
                    "activation": 1,
                    "learningRate": 0.1
                },
                {
                    "weights": [
                        1.0
                    ],
                    "activation": 1,
                    "learningRate": 0.1
                },
                {
                    "weights": [
                        1.0
                    ],
                    "activation": 1,
                    "learningRate": 0.1
                },
                {
                    "weights": [
                        1.0
                    ],
                    "activation": 1,
                    "learningRate": 0.1
                },
                {
                    "weights": [
                        1.0
                    ],
                    "activation": 1,
                    "learningRate": 0.1
                },
                {
                    "weights": [
                        1.0
                    ],
                    "activation": 1,
                    "learningRate": 0.1
                },
                {
                    "weights": [
                        1.0
                    ],
                    "activation": 1,
                    "learningRate": 0.1
                }
            ],
            "isInput": true
        },
        {
            "activation": 1,
            "neurons": [
                {
                    "weights": [
                        0.12963567744996354,
                        0.8438521036107822,
                        1.2694604283637756,
                        0.007468446873232064,
                        2.3121989738311792,
                        0.08246645709564462,
                        -0.09721959790058879,
                        -0.12841429297808357,
                        0.8254994340071032,
                        0.010645614714070434,
                        -0.226817489774902,
                        0.17321999672390584,
                        0.34811573896891784,
                        0.11032915359579269,
                        -0.09925631328952216,
                        -0.2144234828386087,
                        -0.06566778691399733,
                        0.709979086269104
                    ],
                    "activation": 1,
                    "learningRate": 0.1
                },
                {
                    "weights": [
                        0.005566886104103389,
                        0.15932197331977144,
                        0.30626642534361376,
                        0.2123146149542348,
                        1.4244963028547264,
                        0.8205874386041115,
                        -0.13770758635379587,
                        0.7976515251707432,
                        1.0981402906675954,
                        -0.10398484795623256,
                        0.6620767036202609,
                        0.0005217634110223613,
                        2.6320721710490127,
                        0.23305574067798415,
                        -0.05281974834237921,
                        0.8442127993250217,
                        0.6496254990991446,
                        0.38138099356541016
                    ],
                    "activation": 1,
                    "learningRate": 0.1
                },
                {
                    "weights": [
                        0.017928408036769955,
                        0.2587130314569141,
                        2.9675968238527064,
                        -0.2110036192548711,
                        -0.004978620743576634,
                        -0.12658585856184107,
                        1.1853457613809448,
                        -0.0028099514703153194,
                        -0.09122718104562721,
                        -0.028230911918728667,
                        0.14600748198988697,
                        0.7350553358600219,
                        0.8675605955170351,
                        -0.11238730449750818,
                        0.0819035732589001,
                        0.000010050415819949617,
                        -0.12063954732809942,
                        0.1520576460845343
                    ],
                    "activation": 1,
                    "learningRate": 0.1
                },
                {
                    "weights": [
                        0.695898170112187,
                        0.6514600139890031,
                        0.01413616284442722,
                        -0.11528372214664499,
                        -0.010697912900476416,
                        0.5701759317400953,
                        -0.0018991837029264935,
                        3.709964175949209,
                        0.4055781672974045,
                        0.2039754798623691,
                        0.2167276958664945,
                        -0.19654071780285493,
                        0.08156501926456114,
                        0.2600569950950362,
                        -0.010509075941507434,
                        0.40672544844377007,
                        0.44197333055648114,
                        0.7957570975549214
                    ],
                    "activation": 1,
                    "learningRate": 0.1
                },
                {
                    "weights": [
                        -0.16607377739204915,
                        -0.13553276320625834,
                        0.06350231426728584,
                        0.020446671453752535,
                        0.017428577568687924,
                        0.42346739965697544,
                        0.5301477105072456,
                        -0.10620193710038209,
                        1.2088625864069762,
                        0.00510541592768953,
                        0.10808634414064158,
                        0.01740082421306935,
                        0.12664661933081423,
                        0.7791046613592536,
                        -0.15092814756970166,
                        0.3564931319662113,
                        -0.16442198792424867,
                        0.010761910564761556
                    ],
                    "activation": 1,
                    "learningRate": 0.1
                },
                {
                    "weights": [
                        0.1602051305171504,
                        0.19218092367087478,
                        0.1358463187577977,
                        0.0018546566818608704,
                        0.22418438480429345,
                        0.049366681080072305,
                        0.013122396961072202,
                        1.1827135698965727,
                        0.0004733566055535234,
                        0.7121371712607782,
                        -0.21329028944204453,
                        0.743469738485087,
                        0.17421285257850913,
                        1.241044387766683,
                        0.01251829268162576,
                        1.0831689396858284,
                        -0.0019392672851571927,
                        0.836612831607505
                    ],
                    "activation": 1,
                    "learningRate": 0.1
                },
                {
                    "weights": [
                        0.3513490415809658,
                        0.10030252006941875,
                        0.36762826914805746,
                        0.25784252379015726,
                        0.08901039664301344,
                        -0.001698203989718664,
                        0.018422537797044832,
                        0.19642025812258612,
                        1.8231381783053937,
                        1.531049577551376,
                        0.7907116994205732,
                        0.8673945825065927,
                        1.191271047698685,
                        -0.17653195689770942,
                        0.00022795894978294793,
                        0.10378094347404497,
                        0.3856017764354615,
                        0.8010970294342705
                    ],
                    "activation": 1,
                    "learningRate": 0.1
                },
                {
                    "weights": [
                        0.008206981967692746,
                        0.2325645265776253,
                        -0.21778030153335481,
                        -0.16931917872500743,
                        0.30840254236113696,
                        -0.22734704720241516,
                        -0.0026999792430784375,
                        -0.09516779466405745,
                        0.07185914844752869,
                        1.9370779871330037,
                        0.29670208840101076,
                        0.014527540306210701,
                        0.011839186248040128,
                        0.7446803627078402,
                        -0.04108025696233005,
                        0.16504552980255624,
                        0.11898519681314815,
                        0.20846305664959155
                    ],
                    "activation": 1,
                    "learningRate": 0.1
                }
            ],
            "isInput": false
        },
        {
            "activation": 1,
            "neurons": [
                {
                    "weights": [
                        0.009683899069400594,
                        0.16109552276083394,
                        0.0938828659544168,
                        -0.21645074510278506,
                        0.5035804522486134,
                        0.6595120272856303,
                        0.2715023384334842,
                        0.27472716087631055
                    ],
                    "activation": 1,
                    "learningRate": 0.1
                },
                {
                    "weights": [
                        -0.09244833808534622,
                        -0.0050083598666652105,
                        -0.008211254006347282,
                        0.2687612284622606,
                        -0.22870692861507697,
                        -0.29982943804408174,
                        -0.17665087113532604,
                        -0.009496098134063994
                    ],
                    "activation": 1,
                    "learningRate": 0.1
                },
                {
                    "weights": [
                        0.11115693216428629,
                        -0.053750533809839046,
                        -0.33816817853060327,
                        -0.057620090381702016,
                        -0.0734007012565926,
                        -0.333218714068963,
                        0.2470716304380808,
                        0.31234762452386744
                    ],
                    "activation": 1,
                    "learningRate": 0.1
                },
                {
                    "weights": [
                        -0.2327985927254394,
                        0.039935583297617615,
                        0.09664475937429984,
                        -0.00899252803160433,
                        0.2134979566397934,
                        0.029469030527740258,
                        0.015628231588927184,
                        -0.05185234536343852
                    ],
                    "activation": 1,
                    "learningRate": 0.1
                }
            ],
            "isInput": false
        }
    ],
    "learningRate": 0.1
}